<?xml version='1.0' encoding='UTF-8'?><PMML version="4.3" xmlns="http://www.dmg.org/PMML-4_3" xmlns:xsi="http://www.w3.org/2001/XMLSchema-instance"><Header description="Model kind: mtree Model id: 619425da8be2aa39e20037ad"><Application name="BigML"></Application></Header><DataDictionary><DataField name="legal-entity" displayName="" optype="categorical" dataType="string"><Extension name="BigML-Field_ID" value="000000"></Extension><Value value="private"></Value><Value value="juristical"></Value></DataField><DataField name="order-volume" displayName="" optype="continuous" dataType="integer"><Extension name="BigML-Field_ID" value="000001"></Extension></DataField><DataField name="payment-method" displayName="" optype="categorical" dataType="string"><Extension name="BigML-Field_ID" value="000002"></Extension><Value value="invoice"></Value><Value value="cash"></Value><Value value="creditcard"></Value><Value value="twint"></Value><Value value="prepayment"></Value></DataField><DataField name="scoring" displayName="" optype="categorical" dataType="string"><Extension name="BigML-Field_ID" value="000003"></Extension><Value value="orange"></Value><Value value="green"></Value><Value value="red"></Value></DataField></DataDictionary><TreeModel functionName="classification" algorithmName="mtree" missingValueStrategy="lastPrediction" modelName="payment-scoring | Training (80%)"><MiningSchema><MiningField name="legal-entity"></MiningField><MiningField name="order-volume"></MiningField><MiningField name="payment-method"></MiningField><MiningField name="scoring" usageType="target"></MiningField></MiningSchema><ModelStats><UnivariateStats field="legal-entity"><Counts totalFreq="655" missingFreq="0" cardinality="2"></Counts><DiscrStats modalValue="private"><Array type="int" n="2">409 246</Array><Array type="string" n="2">"private" "juristical"</Array></DiscrStats></UnivariateStats><UnivariateStats field="order-volume"><Counts totalFreq="655" missingFreq="0"></Counts><NumericInfo minimum="38" maximum="4993" mean="2449.02595" median="2534" standardDeviation="1493.97171"></NumericInfo><ContStats><Interval closure="closedOpen" leftMargin="0" rightMargin="200"></Interval><Interval closure="closedOpen" leftMargin="200" rightMargin="400"></Interval><Interval closure="closedOpen" leftMargin="400" rightMargin="600"></Interval><Interval closure="closedOpen" leftMargin="600" rightMargin="800"></Interval><Interval closure="closedOpen" leftMargin="800" rightMargin="1000"></Interval><Interval closure="closedOpen" leftMargin="1000" rightMargin="1200"></Interval><Interval closure="closedOpen" leftMargin="1200" rightMargin="1400"></Interval><Interval closure="closedOpen" leftMargin="1400" rightMargin="1600"></Interval><Interval closure="closedOpen" leftMargin="1600" rightMargin="1800"></Interval><Interval closure="closedOpen" leftMargin="1800" rightMargin="2000"></Interval><Interval closure="closedOpen" leftMargin="2000" rightMargin="2200"></Interval><Interval closure="closedOpen" leftMargin="2200" rightMargin="2400"></Interval><Interval closure="closedOpen" leftMargin="2400" rightMargin="2600"></Interval><Interval closure="closedOpen" leftMargin="2600" rightMargin="2800"></Interval><Interval closure="closedOpen" leftMargin="2800" rightMargin="3000"></Interval><Interval closure="closedOpen" leftMargin="3000" rightMargin="3200"></Interval><Interval closure="closedOpen" leftMargin="3200" rightMargin="3400"></Interval><Interval closure="closedOpen" leftMargin="3400" rightMargin="3600"></Interval><Interval closure="closedOpen" leftMargin="3600" rightMargin="3800"></Interval><Interval closure="closedOpen" leftMargin="3800" rightMargin="4000"></Interval><Interval closure="closedOpen" leftMargin="4000" rightMargin="4200"></Interval><Interval closure="closedOpen" leftMargin="4200" rightMargin="4400"></Interval><Interval closure="closedOpen" leftMargin="4400" rightMargin="4600"></Interval><Interval closure="closedOpen" leftMargin="4600" rightMargin="4800"></Interval><Array type="int" n="25">45 48 13 24 23 17 23 19 25 26 28 20 22 32 21 26 35 28 23 37 21 25 26 26 22</Array></ContStats></UnivariateStats><UnivariateStats field="payment-method"><Counts totalFreq="655" missingFreq="0" cardinality="5"></Counts><DiscrStats modalValue="invoice"><Array type="int" n="5">263 173 153 38 28</Array><Array type="string" n="5">"invoice" "cash" "creditcard" "twint" "prepayment"</Array></DiscrStats></UnivariateStats><UnivariateStats field="scoring"><Counts totalFreq="655" missingFreq="0" cardinality="3"></Counts><DiscrStats modalValue="orange"><Array type="int" n="3">327 174 154</Array><Array type="string" n="3">"orange" "green" "red"</Array></DiscrStats></UnivariateStats></ModelStats><Node score="orange" recordCount="655"><True></True><ScoreDistribution value="orange" recordCount="327" confidence="0.46106" probability="0.49924"></ScoreDistribution><ScoreDistribution value="green" recordCount="174" confidence="0.23326" probability="0.26565"></ScoreDistribution><ScoreDistribution value="red" recordCount="154" confidence="0.20424" probability="0.23511"></ScoreDistribution><Node score="orange" recordCount="153"><SimplePredicate operator="equal" field="payment-method" value="creditcard"></SimplePredicate><ScoreDistribution value="orange" recordCount="121" confidence="0.71968" probability="0.78896"></ScoreDistribution><ScoreDistribution value="green" recordCount="32" confidence="0.15223" probability="0.20952"></ScoreDistribution><ScoreDistribution value="red" recordCount="0" confidence="0" probability="0.00153"></ScoreDistribution><Node score="orange" recordCount="95"><SimplePredicate operator="equal" field="legal-entity" value="private"></SimplePredicate><ScoreDistribution value="orange" recordCount="63" confidence="0.56342" probability="0.66145"></ScoreDistribution><ScoreDistribution value="green" recordCount="32" confidence="0.24979" probability="0.3361"></ScoreDistribution><ScoreDistribution value="red" recordCount="0" confidence="0" probability="0.00245"></ScoreDistribution><Node score="orange" recordCount="92"><SimplePredicate operator="greaterThan" field="order-volume" value="352"></SimplePredicate><ScoreDistribution value="orange" recordCount="62" confidence="0.57283" probability="0.67203"></ScoreDistribution><ScoreDistribution value="green" recordCount="30" confidence="0.23895" probability="0.32544"></ScoreDistribution><ScoreDistribution value="red" recordCount="0" confidence="0" probability="0.00253"></ScoreDistribution><Node score="orange" recordCount="88"><SimplePredicate operator="greaterThan" field="order-volume" value="662"></SimplePredicate><ScoreDistribution value="orange" recordCount="58" confidence="0.55526" probability="0.65729"></ScoreDistribution><ScoreDistribution value="green" recordCount="30" confidence="0.25039" probability="0.34006"></ScoreDistribution><ScoreDistribution value="red" recordCount="0" confidence="0" probability="0.00264"></ScoreDistribution><Node score="orange" recordCount="14"><SimplePredicate operator="greaterThan" field="order-volume" value="4312"></SimplePredicate><ScoreDistribution value="orange" recordCount="11" confidence="0.5241" probability="0.76662"></ScoreDistribution><ScoreDistribution value="green" recordCount="3" confidence="0.07571" probability="0.21771"></ScoreDistribution><ScoreDistribution value="red" recordCount="0" confidence="0" probability="0.01567"></ScoreDistribution><Node score="orange" recordCount="8"><SimplePredicate operator="greaterThan" field="order-volume" value="4562"></SimplePredicate><ScoreDistribution value="orange" recordCount="5" confidence="0.30574" probability="0.61103"></ScoreDistribution><ScoreDistribution value="green" recordCount="3" confidence="0.13684" probability="0.36285"></ScoreDistribution><ScoreDistribution value="red" recordCount="0" confidence="0" probability="0.02612"></ScoreDistribution><Node score="orange" recordCount="3"><SimplePredicate operator="greaterThan" field="order-volume" value="4887"></SimplePredicate><ScoreDistribution value="orange" recordCount="3" confidence="0.43849" probability="0.87481"></ScoreDistribution><ScoreDistribution value="green" recordCount="0" confidence="0" probability="0.06641"></ScoreDistribution><ScoreDistribution value="red" recordCount="0" confidence="0" probability="0.05878"></ScoreDistribution></Node><Node score="green" recordCount="5"><SimplePredicate operator="lessOrEqual" field="order-volume" value="4887"></SimplePredicate><ScoreDistribution value="orange" recordCount="2" confidence="0.11762" probability="0.41654"></ScoreDistribution><ScoreDistribution value="green" recordCount="3" confidence="0.23072" probability="0.54427"></ScoreDistribution><ScoreDistribution value="red" recordCount="0" confidence="0" probability="0.03919"></ScoreDistribution><Node score="green" recordCount="2"><SimplePredicate operator="greaterThan" field="order-volume" value="4727"></SimplePredicate><ScoreDistribution value="orange" recordCount="0" confidence="0" probability="0.16641"></ScoreDistribution><ScoreDistribution value="green" recordCount="2" confidence="0.34237" probability="0.75522"></ScoreDistribution><ScoreDistribution value="red" recordCount="0" confidence="0" probability="0.07837"></ScoreDistribution></Node><Node score="orange" recordCount="3"><SimplePredicate operator="lessOrEqual" field="order-volume" value="4727"></SimplePredicate><ScoreDistribution value="orange" recordCount="2" confidence="0.20765" probability="0.62481"></ScoreDistribution><ScoreDistribution value="green" recordCount="1" confidence="0.06149" probability="0.31641"></ScoreDistribution><ScoreDistribution value="red" recordCount="0" confidence="0" probability="0.05878"></ScoreDistribution><Node score="orange" recordCount="2"><SimplePredicate operator="greaterThan" field="order-volume" value="4582"></SimplePredicate><ScoreDistribution value="orange" recordCount="2" confidence="0.34237" probability="0.83308"></ScoreDistribution><ScoreDistribution value="green" recordCount="0" confidence="0" probability="0.08855"></ScoreDistribution><ScoreDistribution value="red" recordCount="0" confidence="0" probability="0.07837"></ScoreDistribution></Node><Node score="green" recordCount="1"><SimplePredicate operator="lessOrEqual" field="order-volume" value="4582"></SimplePredicate><ScoreDistribution value="orange" recordCount="0" confidence="0" probability="0.24962"></ScoreDistribution><ScoreDistribution value="green" recordCount="1" confidence="0.20654" probability="0.63282"></ScoreDistribution><ScoreDistribution value="red" recordCount="0" confidence="0" probability="0.11756"></ScoreDistribution></Node></Node></Node></Node><Node score="orange" recordCount="6"><SimplePredicate operator="lessOrEqual" field="order-volume" value="4562"></SimplePredicate><ScoreDistribution value="orange" recordCount="6" confidence="0.60966" probability="0.92846"></ScoreDistribution><ScoreDistribution value="green" recordCount="0" confidence="0" probability="0.03795"></ScoreDistribution><ScoreDistribution value="red" recordCount="0" confidence="0" probability="0.03359"></ScoreDistribution></Node></Node><Node score="orange" recordCount="74"><SimplePredicate operator="lessOrEqual" field="order-volume" value="4312"></SimplePredicate><ScoreDistribution value="orange" recordCount="47" confidence="0.52132" probability="0.63332"></ScoreDistribution><ScoreDistribution value="green" recordCount="27" confidence="0.26438" probability="0.36354"></ScoreDistribution><ScoreDistribution value="red" recordCount="0" confidence="0" probability="0.00313"></ScoreDistribution><Node score="green" recordCount="3"><SimplePredicate operator="greaterThan" field="order-volume" value="4152"></SimplePredicate><ScoreDistribution value="orange" recordCount="0" confidence="0" probability="0.12481"></ScoreDistribution><ScoreDistribution value="green" recordCount="3" confidence="0.43849" probability="0.81641"></ScoreDistribution><ScoreDistribution value="red" recordCount="0" confidence="0" probability="0.05878"></ScoreDistribution></Node><Node score="orange" recordCount="71"><SimplePredicate operator="lessOrEqual" field="order-volume" value="4152"></SimplePredicate><ScoreDistribution value="orange" recordCount="47" confidence="0.54616" probability="0.65971"></ScoreDistribution><ScoreDistribution value="green" recordCount="24" confidence="0.23885" probability="0.33702"></ScoreDistribution><ScoreDistribution value="red" recordCount="0" confidence="0" probability="0.00327"></ScoreDistribution><Node score="orange" recordCount="4"><SimplePredicate operator="greaterThan" field="order-volume" value="3965"></SimplePredicate><ScoreDistribution value="orange" recordCount="4" confidence="0.5101" probability="0.89985"></ScoreDistribution><ScoreDistribution value="green" recordCount="0" confidence="0" probability="0.05313"></ScoreDistribution><ScoreDistribution value="red" recordCount="0" confidence="0" probability="0.04702"></ScoreDistribution></Node><Node score="orange" recordCount="67"><SimplePredicate operator="lessOrEqual" field="order-volume" value="3965"></SimplePredicate><ScoreDistribution value="orange" recordCount="43" confidence="0.52218" probability="0.63969"></ScoreDistribution><ScoreDistribution value="green" recordCount="24" confidence="0.25398" probability="0.35685"></ScoreDistribution><ScoreDistribution value="red" recordCount="0" confidence="0" probability="0.00346"></ScoreDistribution><Node score="orange" recordCount="10"><SimplePredicate operator="greaterThan" field="order-volume" value="3715"></SimplePredicate><ScoreDistribution value="orange" recordCount="5" confidence="0.23659" probability="0.49993"></ScoreDistribution><ScoreDistribution value="green" recordCount="5" confidence="0.23659" probability="0.4787"></ScoreDistribution><ScoreDistribution value="red" recordCount="0" confidence="0" probability="0.02137"></ScoreDistribution><Node score="green" recordCount="8"><SimplePredicate operator="greaterThan" field="order-volume" value="3758"></SimplePredicate><ScoreDistribution value="orange" recordCount="3" confidence="0.13684" probability="0.3888"></ScoreDistribution><ScoreDistribution value="green" recordCount="5" confidence="0.30574" probability="0.58507"></ScoreDistribution><ScoreDistribution value="red" recordCount="0" confidence="0" probability="0.02612"></ScoreDistribution><Node score="orange" recordCount="5"><SimplePredicate operator="greaterThan" field="order-volume" value="3813"></SimplePredicate><ScoreDistribution value="orange" recordCount="3" confidence="0.23072" probability="0.58321"></ScoreDistribution><ScoreDistribution value="green" recordCount="2" confidence="0.11762" probability="0.37761"></ScoreDistribution><ScoreDistribution value="red" recordCount="0" confidence="0" probability="0.03919"></ScoreDistribution><Node score="green" recordCount="1"><SimplePredicate operator="greaterThan" field="order-volume" value="3918"></SimplePredicate><ScoreDistribution value="orange" recordCount="0" confidence="0" probability="0.24962"></ScoreDistribution><ScoreDistribution value="green" recordCount="1" confidence="0.20654" probability="0.63282"></ScoreDistribution><ScoreDistribution value="red" recordCount="0" confidence="0" probability="0.11756"></ScoreDistribution></Node><Node score="orange" recordCount="4"><SimplePredicate operator="lessOrEqual" field="order-volume" value="3918"></SimplePredicate><ScoreDistribution value="orange" recordCount="3" confidence="0.30064" probability="0.69985"></ScoreDistribution><ScoreDistribution value="green" recordCount="1" confidence="0.04559" probability="0.25313"></ScoreDistribution><ScoreDistribution value="red" recordCount="0" confidence="0" probability="0.04702"></ScoreDistribution></Node></Node><Node score="green" recordCount="3"><SimplePredicate operator="lessOrEqual" field="order-volume" value="3813"></SimplePredicate><ScoreDistribution value="orange" recordCount="0" confidence="0" probability="0.12481"></ScoreDistribution><ScoreDistribution value="green" recordCount="3" confidence="0.43849" probability="0.81641"></ScoreDistribution><ScoreDistribution value="red" recordCount="0" confidence="0" probability="0.05878"></ScoreDistribution></Node></Node><Node score="orange" recordCount="2"><SimplePredicate operator="lessOrEqual" field="order-volume" value="3758"></SimplePredicate><ScoreDistribution value="orange" recordCount="2" confidence="0.34237" probability="0.83308"></ScoreDistribution><ScoreDistribution value="green" recordCount="0" confidence="0" probability="0.08855"></ScoreDistribution><ScoreDistribution value="red" recordCount="0" confidence="0" probability="0.07837"></ScoreDistribution></Node></Node><Node score="orange" recordCount="57"><SimplePredicate operator="lessOrEqual" field="order-volume" value="3715"></SimplePredicate><ScoreDistribution value="orange" recordCount="38" confidence="0.53722" probability="0.66378"></ScoreDistribution><ScoreDistribution value="green" recordCount="19" confidence="0.22494" probability="0.33217"></ScoreDistribution><ScoreDistribution value="red" recordCount="0" confidence="0" probability="0.00405"></ScoreDistribution><Node score="orange" recordCount="8"><SimplePredicate operator="greaterThan" field="order-volume" value="3553"></SimplePredicate><ScoreDistribution value="orange" recordCount="7" confidence="0.52911" probability="0.83325"></ScoreDistribution><ScoreDistribution value="green" recordCount="1" confidence="0.02242" probability="0.14063"></ScoreDistribution><ScoreDistribution value="red" recordCount="0" confidence="0" probability="0.02612"></ScoreDistribution><Node score="orange" recordCount="4"><SimplePredicate operator="greaterThan" field="order-volume" value="3659"></SimplePredicate><ScoreDistribution value="orange" recordCount="4" confidence="0.5101" probability="0.89985"></ScoreDistribution><ScoreDistribution value="green" recordCount="0" confidence="0" probability="0.05313"></ScoreDistribution><ScoreDistribution value="red" recordCount="0" confidence="0" probability="0.04702"></ScoreDistribution></Node><Node score="orange" recordCount="4"><SimplePredicate operator="lessOrEqual" field="order-volume" value="3659"></SimplePredicate><ScoreDistribution value="orange" recordCount="3" confidence="0.30064" probability="0.69985"></ScoreDistribution><ScoreDistribution value="green" recordCount="1" confidence="0.04559" probability="0.25313"></ScoreDistribution><ScoreDistribution value="red" recordCount="0" confidence="0" probability="0.04702"></ScoreDistribution><Node score="green" recordCount="1"><SimplePredicate operator="greaterThan" field="order-volume" value="3654"></SimplePredicate><ScoreDistribution value="orange" recordCount="0" confidence="0" probability="0.24962"></ScoreDistribution><ScoreDistribution value="green" recordCount="1" confidence="0.20654" probability="0.63282"></ScoreDistribution><ScoreDistribution value="red" recordCount="0" confidence="0" probability="0.11756"></ScoreDistribution></Node><Node score="orange" recordCount="3"><SimplePredicate operator="lessOrEqual" field="order-volume" value="3654"></SimplePredicate><ScoreDistribution value="orange" recordCount="3" confidence="0.43849" probability="0.87481"></ScoreDistribution><ScoreDistribution value="green" recordCount="0" confidence="0" probability="0.06641"></ScoreDistribution><ScoreDistribution value="red" recordCount="0" confidence="0" probability="0.05878"></ScoreDistribution></Node></Node></Node><Node score="orange" recordCount="49"><SimplePredicate operator="lessOrEqual" field="order-volume" value="3553"></SimplePredicate><ScoreDistribution value="orange" recordCount="31" confidence="0.49267" probability="0.62998"></ScoreDistribution><ScoreDistribution value="green" recordCount="18" confidence="0.24665" probability="0.36531"></ScoreDistribution><ScoreDistribution value="red" recordCount="0" confidence="0" probability="0.0047"></ScoreDistribution><Node score="green" recordCount="1"><SimplePredicate operator="greaterThan" field="order-volume" value="3476"></SimplePredicate><ScoreDistribution value="orange" recordCount="0" confidence="0" probability="0.24962"></ScoreDistribution><ScoreDistribution value="green" recordCount="1" confidence="0.20654" probability="0.63282"></ScoreDistribution><ScoreDistribution value="red" recordCount="0" confidence="0" probability="0.11756"></ScoreDistribution></Node><Node score="orange" recordCount="48"><SimplePredicate operator="lessOrEqual" field="order-volume" value="3476"></SimplePredicate><ScoreDistribution value="orange" recordCount="31" confidence="0.50439" probability="0.64284"></ScoreDistribution><ScoreDistribution value="green" recordCount="17" confidence="0.23433" probability="0.35236"></ScoreDistribution><ScoreDistribution value="red" recordCount="0" confidence="0" probability="0.0048"></ScoreDistribution><Node score="orange" recordCount="2"><SimplePredicate operator="greaterThan" field="order-volume" value="3374"></SimplePredicate><ScoreDistribution value="orange" recordCount="2" confidence="0.34237" probability="0.83308"></ScoreDistribution><ScoreDistribution value="green" recordCount="0" confidence="0" probability="0.08855"></ScoreDistribution><ScoreDistribution value="red" recordCount="0" confidence="0" probability="0.07837"></ScoreDistribution></Node><Node score="orange" recordCount="46"><SimplePredicate operator="lessOrEqual" field="order-volume" value="3374"></SimplePredicate><ScoreDistribution value="orange" recordCount="29" confidence="0.486" probability="0.62764"></ScoreDistribution><ScoreDistribution value="green" recordCount="17" confidence="0.24524" probability="0.36735"></ScoreDistribution><ScoreDistribution value="red" recordCount="0" confidence="0" probability="0.005"></ScoreDistribution><Node score="orange" recordCount="22"><SimplePredicate operator="greaterThan" field="order-volume" value="2292"></SimplePredicate><ScoreDistribution value="orange" recordCount="12" confidence="0.34659" probability="0.54345"></ScoreDistribution><ScoreDistribution value="green" recordCount="10" confidence="0.2692" probability="0.44633"></ScoreDistribution><ScoreDistribution value="red" recordCount="0" confidence="0" probability="0.01022"></ScoreDistribution><Node score="orange" recordCount="21"><SimplePredicate operator="greaterThan" field="order-volume" value="2344"></SimplePredicate><ScoreDistribution value="orange" recordCount="12" confidence="0.36546" probability="0.56815"></ScoreDistribution><ScoreDistribution value="green" recordCount="9" confidence="0.2447" probability="0.42117"></ScoreDistribution><ScoreDistribution value="red" recordCount="0" confidence="0" probability="0.01069"></ScoreDistribution><Node score="orange" recordCount="19"><SimplePredicate operator="greaterThan" field="order-volume" value="2418"></SimplePredicate><ScoreDistribution value="orange" recordCount="10" confidence="0.31707" probability="0.52496"></ScoreDistribution><ScoreDistribution value="green" recordCount="9" confidence="0.2733" probability="0.46328"></ScoreDistribution><ScoreDistribution value="red" recordCount="0" confidence="0" probability="0.01176"></ScoreDistribution><Node score="orange" recordCount="17"><SimplePredicate operator="greaterThan" field="order-volume" value="2492"></SimplePredicate><ScoreDistribution value="orange" recordCount="10" confidence="0.36005" probability="0.58329"></ScoreDistribution><ScoreDistribution value="green" recordCount="7" confidence="0.21611" probability="0.40365"></ScoreDistribution><ScoreDistribution value="red" recordCount="0" confidence="0" probability="0.01306"></ScoreDistribution><Node score="orange" recordCount="15"><SimplePredicate operator="greaterThan" field="order-volume" value="2605"></SimplePredicate><ScoreDistribution value="orange" recordCount="8" confidence="0.30117" probability="0.5312"></ScoreDistribution><ScoreDistribution value="green" recordCount="7" confidence="0.24809" probability="0.4541"></ScoreDistribution><ScoreDistribution value="red" recordCount="0" confidence="0" probability="0.01469"></ScoreDistribution><Node score="orange" recordCount="14"><SimplePredicate operator="greaterThan" field="order-volume" value="2654"></SimplePredicate><ScoreDistribution value="orange" recordCount="8" confidence="0.3259" probability="0.56662"></ScoreDistribution><ScoreDistribution value="green" recordCount="6" confidence="0.21381" probability="0.41771"></ScoreDistribution><ScoreDistribution value="red" recordCount="0" confidence="0" probability="0.01567"></ScoreDistribution><Node score="orange" recordCount="12"><SimplePredicate operator="greaterThan" field="order-volume" value="2750"></SimplePredicate><ScoreDistribution value="orange" recordCount="6" confidence="0.25378" probability="0.49994"></ScoreDistribution><ScoreDistribution value="green" recordCount="6" confidence="0.25378" probability="0.48197"></ScoreDistribution><ScoreDistribution value="red" recordCount="0" confidence="0" probability="0.01809"></ScoreDistribution><Node score="orange" recordCount="10"><SimplePredicate operator="greaterThan" field="order-volume" value="2841"></SimplePredicate><ScoreDistribution value="orange" recordCount="6" confidence="0.31267" probability="0.59084"></ScoreDistribution><ScoreDistribution value="green" recordCount="4" confidence="0.16818" probability="0.38779"></ScoreDistribution><ScoreDistribution value="red" recordCount="0" confidence="0" probability="0.02137"></ScoreDistribution><Node score="green" recordCount="1"><SimplePredicate operator="greaterThan" field="order-volume" value="3322"></SimplePredicate><ScoreDistribution value="orange" recordCount="0" confidence="0" probability="0.24962"></ScoreDistribution><ScoreDistribution value="green" recordCount="1" confidence="0.20654" probability="0.63282"></ScoreDistribution><ScoreDistribution value="red" recordCount="0" confidence="0" probability="0.11756"></ScoreDistribution></Node><Node score="orange" recordCount="9"><SimplePredicate operator="lessOrEqual" field="order-volume" value="3322"></SimplePredicate><ScoreDistribution value="orange" recordCount="6" confidence="0.3542" probability="0.64992"></ScoreDistribution><ScoreDistribution value="green" recordCount="3" confidence="0.12058" probability="0.32656"></ScoreDistribution><ScoreDistribution value="red" recordCount="0" confidence="0" probability="0.02351"></ScoreDistribution><Node score="orange" recordCount="3"><SimplePredicate operator="greaterThan" field="order-volume" value="3212"></SimplePredicate><ScoreDistribution value="orange" recordCount="3" confidence="0.43849" probability="0.87481"></ScoreDistribution><ScoreDistribution value="green" recordCount="0" confidence="0" probability="0.06641"></ScoreDistribution><ScoreDistribution value="red" recordCount="0" confidence="0" probability="0.05878"></ScoreDistribution></Node><Node score="orange" recordCount="6"><SimplePredicate operator="lessOrEqual" field="order-volume" value="3212"></SimplePredicate><ScoreDistribution value="orange" recordCount="3" confidence="0.18761" probability="0.49989"></ScoreDistribution><ScoreDistribution value="green" recordCount="3" confidence="0.18761" probability="0.46652"></ScoreDistribution><ScoreDistribution value="red" recordCount="0" confidence="0" probability="0.03359"></ScoreDistribution><Node score="green" recordCount="2"><SimplePredicate operator="greaterThan" field="order-volume" value="3078"></SimplePredicate><ScoreDistribution value="orange" recordCount="0" confidence="0" probability="0.16641"></ScoreDistribution><ScoreDistribution value="green" recordCount="2" confidence="0.34237" probability="0.75522"></ScoreDistribution><ScoreDistribution value="red" recordCount="0" confidence="0" probability="0.07837"></ScoreDistribution></Node><Node score="orange" recordCount="4"><SimplePredicate operator="lessOrEqual" field="order-volume" value="3078"></SimplePredicate><ScoreDistribution value="orange" recordCount="3" confidence="0.30064" probability="0.69985"></ScoreDistribution><ScoreDistribution value="green" recordCount="1" confidence="0.04559" probability="0.25313"></ScoreDistribution><ScoreDistribution value="red" recordCount="0" confidence="0" probability="0.04702"></ScoreDistribution></Node></Node></Node></Node><Node score="green" recordCount="2"><SimplePredicate operator="lessOrEqual" field="order-volume" value="2841"></SimplePredicate><ScoreDistribution value="orange" recordCount="0" confidence="0" probability="0.16641"></ScoreDistribution><ScoreDistribution value="green" recordCount="2" confidence="0.34237" probability="0.75522"></ScoreDistribution><ScoreDistribution value="red" recordCount="0" confidence="0" probability="0.07837"></ScoreDistribution></Node></Node><Node score="orange" recordCount="2"><SimplePredicate operator="lessOrEqual" field="order-volume" value="2750"></SimplePredicate><ScoreDistribution value="orange" recordCount="2" confidence="0.34237" probability="0.83308"></ScoreDistribution><ScoreDistribution value="green" recordCount="0" confidence="0" probability="0.08855"></ScoreDistribution><ScoreDistribution value="red" recordCount="0" confidence="0" probability="0.07837"></ScoreDistribution></Node></Node><Node score="green" recordCount="1"><SimplePredicate operator="lessOrEqual" field="order-volume" value="2654"></SimplePredicate><ScoreDistribution value="orange" recordCount="0" confidence="0" probability="0.24962"></ScoreDistribution><ScoreDistribution value="green" recordCount="1" confidence="0.20654" probability="0.63282"></ScoreDistribution><ScoreDistribution value="red" recordCount="0" confidence="0" probability="0.11756"></ScoreDistribution></Node></Node><Node score="orange" recordCount="2"><SimplePredicate operator="lessOrEqual" field="order-volume" value="2605"></SimplePredicate><ScoreDistribution value="orange" recordCount="2" confidence="0.34237" probability="0.83308"></ScoreDistribution><ScoreDistribution value="green" recordCount="0" confidence="0" probability="0.08855"></ScoreDistribution><ScoreDistribution value="red" recordCount="0" confidence="0" probability="0.07837"></ScoreDistribution></Node></Node><Node score="green" recordCount="2"><SimplePredicate operator="lessOrEqual" field="order-volume" value="2492"></SimplePredicate><ScoreDistribution value="orange" recordCount="0" confidence="0" probability="0.16641"></ScoreDistribution><ScoreDistribution value="green" recordCount="2" confidence="0.34237" probability="0.75522"></ScoreDistribution><ScoreDistribution value="red" recordCount="0" confidence="0" probability="0.07837"></ScoreDistribution></Node></Node><Node score="orange" recordCount="2"><SimplePredicate operator="lessOrEqual" field="order-volume" value="2418"></SimplePredicate><ScoreDistribution value="orange" recordCount="2" confidence="0.34237" probability="0.83308"></ScoreDistribution><ScoreDistribution value="green" recordCount="0" confidence="0" probability="0.08855"></ScoreDistribution><ScoreDistribution value="red" recordCount="0" confidence="0" probability="0.07837"></ScoreDistribution></Node></Node><Node score="green" recordCount="1"><SimplePredicate operator="lessOrEqual" field="order-volume" value="2344"></SimplePredicate><ScoreDistribution value="orange" recordCount="0" confidence="0" probability="0.24962"></ScoreDistribution><ScoreDistribution value="green" recordCount="1" confidence="0.20654" probability="0.63282"></ScoreDistribution><ScoreDistribution value="red" recordCount="0" confidence="0" probability="0.11756"></ScoreDistribution></Node></Node><Node score="orange" recordCount="24"><SimplePredicate operator="lessOrEqual" field="order-volume" value="2292"></SimplePredicate><ScoreDistribution value="orange" recordCount="17" confidence="0.50832" probability="0.69997"></ScoreDistribution><ScoreDistribution value="green" recordCount="7" confidence="0.14914" probability="0.29063"></ScoreDistribution><ScoreDistribution value="red" recordCount="0" confidence="0" probability="0.0094"></ScoreDistribution><Node score="orange" recordCount="6"><SimplePredicate operator="greaterThan" field="order-volume" value="1667"></SimplePredicate><ScoreDistribution value="orange" recordCount="6" confidence="0.60966" probability="0.92846"></ScoreDistribution><ScoreDistribution value="green" recordCount="0" confidence="0" probability="0.03795"></ScoreDistribution><ScoreDistribution value="red" recordCount="0" confidence="0" probability="0.03359"></ScoreDistribution></Node><Node score="orange" recordCount="18"><SimplePredicate operator="lessOrEqual" field="order-volume" value="1667"></SimplePredicate><ScoreDistribution value="orange" recordCount="11" confidence="0.38619" probability="0.60522"></ScoreDistribution><ScoreDistribution value="green" recordCount="7" confidence="0.20305" probability="0.3824"></ScoreDistribution><ScoreDistribution value="red" recordCount="0" confidence="0" probability="0.01237"></ScoreDistribution><Node score="orange" recordCount="17"><SimplePredicate operator="greaterThan" field="order-volume" value="672"></SimplePredicate><ScoreDistribution value="orange" recordCount="11" confidence="0.413" probability="0.63885"></ScoreDistribution><ScoreDistribution value="green" recordCount="6" confidence="0.17309" probability="0.34809"></ScoreDistribution><ScoreDistribution value="red" recordCount="0" confidence="0" probability="0.01306"></ScoreDistribution><Node score="green" recordCount="1"><SimplePredicate operator="greaterThan" field="order-volume" value="1645"></SimplePredicate><ScoreDistribution value="orange" recordCount="0" confidence="0" probability="0.24962"></ScoreDistribution><ScoreDistribution value="green" recordCount="1" confidence="0.20654" probability="0.63282"></ScoreDistribution><ScoreDistribution value="red" recordCount="0" confidence="0" probability="0.11756"></ScoreDistribution></Node><Node score="orange" recordCount="16"><SimplePredicate operator="lessOrEqual" field="order-volume" value="1645"></SimplePredicate><ScoreDistribution value="orange" recordCount="11" confidence="0.44404" probability="0.67643"></ScoreDistribution><ScoreDistribution value="green" recordCount="5" confidence="0.14164" probability="0.30974"></ScoreDistribution><ScoreDistribution value="red" recordCount="0" confidence="0" probability="0.01383"></ScoreDistribution><Node score="orange" recordCount="4"><SimplePredicate operator="greaterThan" field="order-volume" value="1200"></SimplePredicate><ScoreDistribution value="orange" recordCount="4" confidence="0.5101" probability="0.89985"></ScoreDistribution><ScoreDistribution value="green" recordCount="0" confidence="0" probability="0.05313"></ScoreDistribution><ScoreDistribution value="red" recordCount="0" confidence="0" probability="0.04702"></ScoreDistribution></Node><Node score="orange" recordCount="12"><SimplePredicate operator="lessOrEqual" field="order-volume" value="1200"></SimplePredicate><ScoreDistribution value="orange" recordCount="7" confidence="0.31951" probability="0.57686"></ScoreDistribution><ScoreDistribution value="green" recordCount="5" confidence="0.19326" probability="0.40505"></ScoreDistribution><ScoreDistribution value="red" recordCount="0" confidence="0" probability="0.01809"></ScoreDistribution><Node score="green" recordCount="2"><SimplePredicate operator="greaterThan" field="order-volume" value="1032"></SimplePredicate><ScoreDistribution value="orange" recordCount="0" confidence="0" probability="0.16641"></ScoreDistribution><ScoreDistribution value="green" recordCount="2" confidence="0.34237" probability="0.75522"></ScoreDistribution><ScoreDistribution value="red" recordCount="0" confidence="0" probability="0.07837"></ScoreDistribution></Node><Node score="orange" recordCount="10"><SimplePredicate operator="lessOrEqual" field="order-volume" value="1032"></SimplePredicate><ScoreDistribution value="orange" recordCount="7" confidence="0.39677" probability="0.68175"></ScoreDistribution><ScoreDistribution value="green" recordCount="3" confidence="0.10779" probability="0.29688"></ScoreDistribution><ScoreDistribution value="red" recordCount="0" confidence="0" probability="0.02137"></ScoreDistribution><Node score="orange" recordCount="8"><SimplePredicate operator="greaterThan" field="order-volume" value="741"></SimplePredicate><ScoreDistribution value="orange" recordCount="5" confidence="0.30574" probability="0.61103"></ScoreDistribution><ScoreDistribution value="green" recordCount="3" confidence="0.13684" probability="0.36285"></ScoreDistribution><ScoreDistribution value="red" recordCount="0" confidence="0" probability="0.02612"></ScoreDistribution><Node score="orange" recordCount="7"><SimplePredicate operator="greaterThan" field="order-volume" value="757"></SimplePredicate><ScoreDistribution value="orange" recordCount="5" confidence="0.35893" probability="0.6874"></ScoreDistribution><ScoreDistribution value="green" recordCount="2" confidence="0.08222" probability="0.28321"></ScoreDistribution><ScoreDistribution value="red" recordCount="0" confidence="0" probability="0.02939"></ScoreDistribution><Node score="orange" recordCount="5"><SimplePredicate operator="greaterThan" field="order-volume" value="847"></SimplePredicate><ScoreDistribution value="orange" recordCount="3" confidence="0.23072" probability="0.58321"></ScoreDistribution><ScoreDistribution value="green" recordCount="2" confidence="0.11762" probability="0.37761"></ScoreDistribution><ScoreDistribution value="red" recordCount="0" confidence="0" probability="0.03919"></ScoreDistribution><Node score="orange" recordCount="4"><SimplePredicate operator="greaterThan" field="order-volume" value="862"></SimplePredicate><ScoreDistribution value="orange" recordCount="3" confidence="0.30064" probability="0.69985"></ScoreDistribution><ScoreDistribution value="green" recordCount="1" confidence="0.04559" probability="0.25313"></ScoreDistribution><ScoreDistribution value="red" recordCount="0" confidence="0" probability="0.04702"></ScoreDistribution></Node><Node score="green" recordCount="1"><SimplePredicate operator="lessOrEqual" field="order-volume" value="862"></SimplePredicate><ScoreDistribution value="orange" recordCount="0" confidence="0" probability="0.24962"></ScoreDistribution><ScoreDistribution value="green" recordCount="1" confidence="0.20654" probability="0.63282"></ScoreDistribution><ScoreDistribution value="red" recordCount="0" confidence="0" probability="0.11756"></ScoreDistribution></Node></Node><Node score="orange" recordCount="2"><SimplePredicate operator="lessOrEqual" field="order-volume" value="847"></SimplePredicate><ScoreDistribution value="orange" recordCount="2" confidence="0.34237" probability="0.83308"></ScoreDistribution><ScoreDistribution value="green" recordCount="0" confidence="0" probability="0.08855"></ScoreDistribution><ScoreDistribution value="red" recordCount="0" confidence="0" probability="0.07837"></ScoreDistribution></Node></Node><Node score="green" recordCount="1"><SimplePredicate operator="lessOrEqual" field="order-volume" value="757"></SimplePredicate><ScoreDistribution value="orange" recordCount="0" confidence="0" probability="0.24962"></ScoreDistribution><ScoreDistribution value="green" recordCount="1" confidence="0.20654" probability="0.63282"></ScoreDistribution><ScoreDistribution value="red" recordCount="0" confidence="0" probability="0.11756"></ScoreDistribution></Node></Node><Node score="orange" recordCount="2"><SimplePredicate operator="lessOrEqual" field="order-volume" value="741"></SimplePredicate><ScoreDistribution value="orange" recordCount="2" confidence="0.34237" probability="0.83308"></ScoreDistribution><ScoreDistribution value="green" recordCount="0" confidence="0" probability="0.08855"></ScoreDistribution><ScoreDistribution value="red" recordCount="0" confidence="0" probability="0.07837"></ScoreDistribution></Node></Node></Node></Node></Node><Node score="green" recordCount="1"><SimplePredicate operator="lessOrEqual" field="order-volume" value="672"></SimplePredicate><ScoreDistribution value="orange" recordCount="0" confidence="0" probability="0.24962"></ScoreDistribution><ScoreDistribution value="green" recordCount="1" confidence="0.20654" probability="0.63282"></ScoreDistribution><ScoreDistribution value="red" recordCount="0" confidence="0" probability="0.11756"></ScoreDistribution></Node></Node></Node></Node></Node></Node></Node></Node></Node></Node></Node><Node score="orange" recordCount="4"><SimplePredicate operator="lessOrEqual" field="order-volume" value="662"></SimplePredicate><ScoreDistribution value="orange" recordCount="4" confidence="0.5101" probability="0.89985"></ScoreDistribution><ScoreDistribution value="green" recordCount="0" confidence="0" probability="0.05313"></ScoreDistribution><ScoreDistribution value="red" recordCount="0" confidence="0" probability="0.04702"></ScoreDistribution></Node></Node><Node score="green" recordCount="3"><SimplePredicate operator="lessOrEqual" field="order-volume" value="352"></SimplePredicate><ScoreDistribution value="orange" recordCount="1" confidence="0.06149" probability="0.37481"></ScoreDistribution><ScoreDistribution value="green" recordCount="2" confidence="0.20765" probability="0.56641"></ScoreDistribution><ScoreDistribution value="red" recordCount="0" confidence="0" probability="0.05878"></ScoreDistribution><Node score="orange" recordCount="1"><SimplePredicate operator="greaterThan" field="order-volume" value="321"></SimplePredicate><ScoreDistribution value="orange" recordCount="1" confidence="0.20654" probability="0.74962"></ScoreDistribution><ScoreDistribution value="green" recordCount="0" confidence="0" probability="0.13282"></ScoreDistribution><ScoreDistribution value="red" recordCount="0" confidence="0" probability="0.11756"></ScoreDistribution></Node><Node score="green" recordCount="2"><SimplePredicate operator="lessOrEqual" field="order-volume" value="321"></SimplePredicate><ScoreDistribution value="orange" recordCount="0" confidence="0" probability="0.16641"></ScoreDistribution><ScoreDistribution value="green" recordCount="2" confidence="0.34237" probability="0.75522"></ScoreDistribution><ScoreDistribution value="red" recordCount="0" confidence="0" probability="0.07837"></ScoreDistribution></Node></Node></Node><Node score="orange" recordCount="58"><SimplePredicate operator="equal" field="legal-entity" value="juristical"></SimplePredicate><ScoreDistribution value="orange" recordCount="58" confidence="0.93788" probability="0.99151"></ScoreDistribution><ScoreDistribution value="green" recordCount="0" confidence="0" probability="0.0045"></ScoreDistribution><ScoreDistribution value="red" recordCount="0" confidence="0" probability="0.00398"></ScoreDistribution></Node></Node><Node score="orange" recordCount="502"><SimplePredicate operator="notEqual" field="payment-method" value="creditcard"></SimplePredicate><ScoreDistribution value="orange" recordCount="206" confidence="0.36817" probability="0.41054"></ScoreDistribution><ScoreDistribution value="green" recordCount="142" confidence="0.24523" probability="0.28283"></ScoreDistribution><ScoreDistribution value="red" recordCount="154" confidence="0.26803" probability="0.30663"></ScoreDistribution><Node score="green" recordCount="38"><SimplePredicate operator="equal" field="payment-method" value="twint"></SimplePredicate><ScoreDistribution value="orange" recordCount="0" confidence="0" probability="0.0128"></ScoreDistribution><ScoreDistribution value="green" recordCount="38" confidence="0.90819" probability="0.98117"></ScoreDistribution><ScoreDistribution value="red" recordCount="0" confidence="0" probability="0.00603"></ScoreDistribution></Node><Node score="orange" recordCount="464"><SimplePredicate operator="notEqual" field="payment-method" value="twint"></SimplePredicate><ScoreDistribution value="orange" recordCount="206" confidence="0.3994" probability="0.44408"></ScoreDistribution><ScoreDistribution value="green" recordCount="104" confidence="0.18855" probability="0.22423"></ScoreDistribution><ScoreDistribution value="red" recordCount="154" confidence="0.29058" probability="0.33169"></ScoreDistribution><Node score="red" recordCount="201"><SimplePredicate operator="greaterThan" field="order-volume" value="2791"></SimplePredicate><ScoreDistribution value="orange" recordCount="49" confidence="0.18959" probability="0.24505"></ScoreDistribution><ScoreDistribution value="green" recordCount="37" confidence="0.1366" probability="0.18448"></ScoreDistribution><ScoreDistribution value="red" recordCount="115" confidence="0.50302" probability="0.57047"></ScoreDistribution><Node score="orange" recordCount="106"><SimplePredicate operator="equal" field="payment-method" value="invoice"></SimplePredicate><ScoreDistribution value="orange" recordCount="46" confidence="0.34356" probability="0.43457"></ScoreDistribution><ScoreDistribution value="green" recordCount="14" confidence="0.08033" probability="0.13332"></ScoreDistribution><ScoreDistribution value="red" recordCount="46" confidence="0.34356" probability="0.4321"></ScoreDistribution><Node score="red" recordCount="52"><SimplePredicate operator="equal" field="legal-entity" value="private"></SimplePredicate><ScoreDistribution value="orange" recordCount="0" confidence="0" probability="0.00942"></ScoreDistribution><ScoreDistribution value="green" recordCount="6" confidence="0.05397" probability="0.11822"></ScoreDistribution><ScoreDistribution value="red" recordCount="46" confidence="0.77028" probability="0.87236"></ScoreDistribution><Node score="red" recordCount="38"><SimplePredicate operator="greaterThan" field="order-volume" value="3333"></SimplePredicate><ScoreDistribution value="orange" recordCount="0" confidence="0" probability="0.0128"></ScoreDistribution><ScoreDistribution value="green" recordCount="6" confidence="0.07444" probability="0.16066"></ScoreDistribution><ScoreDistribution value="red" recordCount="32" confidence="0.69583" probability="0.82654"></ScoreDistribution><Node score="red" recordCount="37"><SimplePredicate operator="greaterThan" field="order-volume" value="3369"></SimplePredicate><ScoreDistribution value="orange" recordCount="0" confidence="0" probability="0.01314"></ScoreDistribution><ScoreDistribution value="green" recordCount="5" confidence="0.05913" probability="0.13857"></ScoreDistribution><ScoreDistribution value="red" recordCount="32" confidence="0.72022" probability="0.84829"></ScoreDistribution><Node score="red" recordCount="28"><SimplePredicate operator="greaterThan" field="order-volume" value="3928"></SimplePredicate><ScoreDistribution value="orange" recordCount="0" confidence="0" probability="0.01722"></ScoreDistribution><ScoreDistribution value="green" recordCount="5" confidence="0.07878" probability="0.18157"></ScoreDistribution><ScoreDistribution value="red" recordCount="23" confidence="0.64408" probability="0.80121"></ScoreDistribution><Node score="red" recordCount="22"><SimplePredicate operator="greaterThan" field="order-volume" value="4211"></SimplePredicate><ScoreDistribution value="orange" recordCount="0" confidence="0" probability="0.02171"></ScoreDistribution><ScoreDistribution value="green" recordCount="2" confidence="0.02529" probability="0.09851"></ScoreDistribution><ScoreDistribution value="red" recordCount="20" confidence="0.72185" probability="0.87979"></ScoreDistribution><Node score="green" recordCount="2"><SimplePredicate operator="greaterThan" field="order-volume" value="4886"></SimplePredicate><ScoreDistribution value="orange" recordCount="0" confidence="0" probability="0.16641"></ScoreDistribution><ScoreDistribution value="green" recordCount="1" confidence="0.09453" probability="0.42188"></ScoreDistribution><ScoreDistribution value="red" recordCount="1" confidence="0.09453" probability="0.4117"></ScoreDistribution><Node score="red" recordCount="1"><SimplePredicate operator="greaterThan" field="order-volume" value="4930"></SimplePredicate><ScoreDistribution value="orange" recordCount="0" confidence="0" probability="0.24962"></ScoreDistribution><ScoreDistribution value="green" recordCount="0" confidence="0" probability="0.13282"></ScoreDistribution><ScoreDistribution value="red" recordCount="1" confidence="0.20654" probability="0.61756"></ScoreDistribution></Node><Node score="green" recordCount="1"><SimplePredicate operator="lessOrEqual" field="order-volume" value="4930"></SimplePredicate><ScoreDistribution value="orange" recordCount="0" confidence="0" probability="0.24962"></ScoreDistribution><ScoreDistribution value="green" recordCount="1" confidence="0.20654" probability="0.63282"></ScoreDistribution><ScoreDistribution value="red" recordCount="0" confidence="0" probability="0.11756"></ScoreDistribution></Node></Node><Node score="red" recordCount="20"><SimplePredicate operator="lessOrEqual" field="order-volume" value="4886"></SimplePredicate><ScoreDistribution value="orange" recordCount="0" confidence="0" probability="0.02377"></ScoreDistribution><ScoreDistribution value="green" recordCount="1" confidence="0.00888" probability="0.06027"></ScoreDistribution><ScoreDistribution value="red" recordCount="19" confidence="0.76386" probability="0.91596"></ScoreDistribution><Node score="red" recordCount="14"><SimplePredicate operator="greaterThan" field="order-volume" value="4504"></SimplePredicate><ScoreDistribution value="orange" recordCount="0" confidence="0" probability="0.03328"></ScoreDistribution><ScoreDistribution value="green" recordCount="0" confidence="0" probability="0.01771"></ScoreDistribution><ScoreDistribution value="red" recordCount="14" confidence="0.78468" probability="0.94901"></ScoreDistribution></Node><Node score="red" recordCount="6"><SimplePredicate operator="lessOrEqual" field="order-volume" value="4504"></SimplePredicate><ScoreDistribution value="orange" recordCount="0" confidence="0" probability="0.07132"></ScoreDistribution><ScoreDistribution value="green" recordCount="1" confidence="0.03005" probability="0.18081"></ScoreDistribution><ScoreDistribution value="red" recordCount="5" confidence="0.43649" probability="0.74787"></ScoreDistribution><Node score="green" recordCount="1"><SimplePredicate operator="greaterThan" field="order-volume" value="4467"></SimplePredicate><ScoreDistribution value="orange" recordCount="0" confidence="0" probability="0.24962"></ScoreDistribution><ScoreDistribution value="green" recordCount="1" confidence="0.20654" probability="0.63282"></ScoreDistribution><ScoreDistribution value="red" recordCount="0" confidence="0" probability="0.11756"></ScoreDistribution></Node><Node score="red" recordCount="5"><SimplePredicate operator="lessOrEqual" field="order-volume" value="4467"></SimplePredicate><ScoreDistribution value="orange" recordCount="0" confidence="0" probability="0.08321"></ScoreDistribution><ScoreDistribution value="green" recordCount="0" confidence="0" probability="0.04427"></ScoreDistribution><ScoreDistribution value="red" recordCount="5" confidence="0.56551" probability="0.87252"></ScoreDistribution></Node></Node></Node></Node><Node score="green" recordCount="6"><SimplePredicate operator="lessOrEqual" field="order-volume" value="4211"></SimplePredicate><ScoreDistribution value="orange" recordCount="0" confidence="0" probability="0.07132"></ScoreDistribution><ScoreDistribution value="green" recordCount="3" confidence="0.18761" probability="0.46652"></ScoreDistribution><ScoreDistribution value="red" recordCount="3" confidence="0.18761" probability="0.46216"></ScoreDistribution><Node score="red" recordCount="5"><SimplePredicate operator="greaterThan" field="order-volume" value="3968"></SimplePredicate><ScoreDistribution value="orange" recordCount="0" confidence="0" probability="0.08321"></ScoreDistribution><ScoreDistribution value="green" recordCount="2" confidence="0.11762" probability="0.37761"></ScoreDistribution><ScoreDistribution value="red" recordCount="3" confidence="0.23072" probability="0.53919"></ScoreDistribution><Node score="green" recordCount="3"><SimplePredicate operator="greaterThan" field="order-volume" value="4017"></SimplePredicate><ScoreDistribution value="orange" recordCount="0" confidence="0" probability="0.12481"></ScoreDistribution><ScoreDistribution value="green" recordCount="2" confidence="0.20765" probability="0.56641"></ScoreDistribution><ScoreDistribution value="red" recordCount="1" confidence="0.06149" probability="0.30878"></ScoreDistribution></Node><Node score="red" recordCount="2"><SimplePredicate operator="lessOrEqual" field="order-volume" value="4017"></SimplePredicate><ScoreDistribution value="orange" recordCount="0" confidence="0" probability="0.16641"></ScoreDistribution><ScoreDistribution value="green" recordCount="0" confidence="0" probability="0.08855"></ScoreDistribution><ScoreDistribution value="red" recordCount="2" confidence="0.34237" probability="0.74504"></ScoreDistribution></Node></Node><Node score="green" recordCount="1"><SimplePredicate operator="lessOrEqual" field="order-volume" value="3968"></SimplePredicate><ScoreDistribution value="orange" recordCount="0" confidence="0" probability="0.24962"></ScoreDistribution><ScoreDistribution value="green" recordCount="1" confidence="0.20654" probability="0.63282"></ScoreDistribution><ScoreDistribution value="red" recordCount="0" confidence="0" probability="0.11756"></ScoreDistribution></Node></Node></Node><Node score="red" recordCount="9"><SimplePredicate operator="lessOrEqual" field="order-volume" value="3928"></SimplePredicate><ScoreDistribution value="orange" recordCount="0" confidence="0" probability="0.04992"></ScoreDistribution><ScoreDistribution value="green" recordCount="0" confidence="0" probability="0.02656"></ScoreDistribution><ScoreDistribution value="red" recordCount="9" confidence="0.70085" probability="0.92351"></ScoreDistribution></Node></Node><Node score="green" recordCount="1"><SimplePredicate operator="lessOrEqual" field="order-volume" value="3369"></SimplePredicate><ScoreDistribution value="orange" recordCount="0" confidence="0" probability="0.24962"></ScoreDistribution><ScoreDistribution value="green" recordCount="1" confidence="0.20654" probability="0.63282"></ScoreDistribution><ScoreDistribution value="red" recordCount="0" confidence="0" probability="0.11756"></ScoreDistribution></Node></Node><Node score="red" recordCount="14"><SimplePredicate operator="lessOrEqual" field="order-volume" value="3333"></SimplePredicate><ScoreDistribution value="orange" recordCount="0" confidence="0" probability="0.03328"></ScoreDistribution><ScoreDistribution value="green" recordCount="0" confidence="0" probability="0.01771"></ScoreDistribution><ScoreDistribution value="red" recordCount="14" confidence="0.78468" probability="0.94901"></ScoreDistribution></Node></Node><Node score="orange" recordCount="54"><SimplePredicate operator="equal" field="legal-entity" value="juristical"></SimplePredicate><ScoreDistribution value="orange" recordCount="46" confidence="0.734" probability="0.84544"></ScoreDistribution><ScoreDistribution value="green" recordCount="8" confidence="0.07703" probability="0.15028"></ScoreDistribution><ScoreDistribution value="red" recordCount="0" confidence="0" probability="0.00427"></ScoreDistribution><Node score="green" recordCount="3"><SimplePredicate operator="greaterThan" field="order-volume" value="4860"></SimplePredicate><ScoreDistribution value="orange" recordCount="1" confidence="0.06149" probability="0.37481"></ScoreDistribution><ScoreDistribution value="green" recordCount="2" confidence="0.20765" probability="0.56641"></ScoreDistribution><ScoreDistribution value="red" recordCount="0" confidence="0" probability="0.05878"></ScoreDistribution><Node score="green" recordCount="2"><SimplePredicate operator="greaterThan" field="order-volume" value="4881"></SimplePredicate><ScoreDistribution value="orange" recordCount="0" confidence="0" probability="0.16641"></ScoreDistribution><ScoreDistribution value="green" recordCount="2" confidence="0.34237" probability="0.75522"></ScoreDistribution><ScoreDistribution value="red" recordCount="0" confidence="0" probability="0.07837"></ScoreDistribution></Node><Node score="orange" recordCount="1"><SimplePredicate operator="lessOrEqual" field="order-volume" value="4881"></SimplePredicate><ScoreDistribution value="orange" recordCount="1" confidence="0.20654" probability="0.74962"></ScoreDistribution><ScoreDistribution value="green" recordCount="0" confidence="0" probability="0.13282"></ScoreDistribution><ScoreDistribution value="red" recordCount="0" confidence="0" probability="0.11756"></ScoreDistribution></Node></Node><Node score="orange" recordCount="51"><SimplePredicate operator="lessOrEqual" field="order-volume" value="4860"></SimplePredicate><ScoreDistribution value="orange" recordCount="45" confidence="0.76619" probability="0.87499"></ScoreDistribution><ScoreDistribution value="green" recordCount="6" confidence="0.05505" probability="0.12049"></ScoreDistribution><ScoreDistribution value="red" recordCount="0" confidence="0" probability="0.00452"></ScoreDistribution><Node score="orange" recordCount="40"><SimplePredicate operator="greaterThan" field="order-volume" value="3187"></SimplePredicate><ScoreDistribution value="orange" recordCount="38" confidence="0.83496" probability="0.93901"></ScoreDistribution><ScoreDistribution value="green" recordCount="2" confidence="0.01382" probability="0.05526"></ScoreDistribution><ScoreDistribution value="red" recordCount="0" confidence="0" probability="0.00573"></ScoreDistribution><Node score="orange" recordCount="8"><SimplePredicate operator="greaterThan" field="order-volume" value="4489"></SimplePredicate><ScoreDistribution value="orange" recordCount="7" confidence="0.52911" probability="0.83325"></ScoreDistribution><ScoreDistribution value="green" recordCount="1" confidence="0.02242" probability="0.14063"></ScoreDistribution><ScoreDistribution value="red" recordCount="0" confidence="0" probability="0.02612"></ScoreDistribution><Node score="orange" recordCount="7"><SimplePredicate operator="greaterThan" field="order-volume" value="4532"></SimplePredicate><ScoreDistribution value="orange" recordCount="7" confidence="0.64566" probability="0.9374"></ScoreDistribution><ScoreDistribution value="green" recordCount="0" confidence="0" probability="0.03321"></ScoreDistribution><ScoreDistribution value="red" recordCount="0" confidence="0" probability="0.02939"></ScoreDistribution></Node><Node score="green" recordCount="1"><SimplePredicate operator="lessOrEqual" field="order-volume" value="4532"></SimplePredicate><ScoreDistribution value="orange" recordCount="0" confidence="0" probability="0.24962"></ScoreDistribution><ScoreDistribution value="green" recordCount="1" confidence="0.20654" probability="0.63282"></ScoreDistribution><ScoreDistribution value="red" recordCount="0" confidence="0" probability="0.11756"></ScoreDistribution></Node></Node><Node score="orange" recordCount="32"><SimplePredicate operator="lessOrEqual" field="order-volume" value="4489"></SimplePredicate><ScoreDistribution value="orange" recordCount="31" confidence="0.84255" probability="0.95452"></ScoreDistribution><ScoreDistribution value="green" recordCount="1" confidence="0.00554" probability="0.03835"></ScoreDistribution><ScoreDistribution value="red" recordCount="0" confidence="0" probability="0.00712"></ScoreDistribution><Node score="orange" recordCount="23"><SimplePredicate operator="greaterThan" field="order-volume" value="3507"></SimplePredicate><ScoreDistribution value="orange" recordCount="23" confidence="0.85688" probability="0.97913"></ScoreDistribution><ScoreDistribution value="green" recordCount="0" confidence="0" probability="0.01107"></ScoreDistribution><ScoreDistribution value="red" recordCount="0" confidence="0" probability="0.0098"></ScoreDistribution></Node><Node score="orange" recordCount="9"><SimplePredicate operator="lessOrEqual" field="order-volume" value="3507"></SimplePredicate><ScoreDistribution value="orange" recordCount="8" confidence="0.56499" probability="0.84992"></ScoreDistribution><ScoreDistribution value="green" recordCount="1" confidence="0.01989" probability="0.12656"></ScoreDistribution><ScoreDistribution value="red" recordCount="0" confidence="0" probability="0.02351"></ScoreDistribution><Node score="green" recordCount="1"><SimplePredicate operator="greaterThan" field="order-volume" value="3500"></SimplePredicate><ScoreDistribution value="orange" recordCount="0" confidence="0" probability="0.24962"></ScoreDistribution><ScoreDistribution value="green" recordCount="1" confidence="0.20654" probability="0.63282"></ScoreDistribution><ScoreDistribution value="red" recordCount="0" confidence="0" probability="0.11756"></ScoreDistribution></Node><Node score="orange" recordCount="8"><SimplePredicate operator="lessOrEqual" field="order-volume" value="3500"></SimplePredicate><ScoreDistribution value="orange" recordCount="8" confidence="0.67558" probability="0.94436"></ScoreDistribution><ScoreDistribution value="green" recordCount="0" confidence="0" probability="0.02952"></ScoreDistribution><ScoreDistribution value="red" recordCount="0" confidence="0" probability="0.02612"></ScoreDistribution></Node></Node></Node></Node><Node score="orange" recordCount="11"><SimplePredicate operator="lessOrEqual" field="order-volume" value="3187"></SimplePredicate><ScoreDistribution value="orange" recordCount="7" confidence="0.3538" probability="0.62494"></ScoreDistribution><ScoreDistribution value="green" recordCount="4" confidence="0.15166" probability="0.35547"></ScoreDistribution><ScoreDistribution value="red" recordCount="0" confidence="0" probability="0.01959"></ScoreDistribution><Node score="orange" recordCount="10"><SimplePredicate operator="greaterThan" field="order-volume" value="2823"></SimplePredicate><ScoreDistribution value="orange" recordCount="7" confidence="0.39677" probability="0.68175"></ScoreDistribution><ScoreDistribution value="green" recordCount="3" confidence="0.10779" probability="0.29688"></ScoreDistribution><ScoreDistribution value="red" recordCount="0" confidence="0" probability="0.02137"></ScoreDistribution><Node score="green" recordCount="1"><SimplePredicate operator="greaterThan" field="order-volume" value="3166"></SimplePredicate><ScoreDistribution value="orange" recordCount="0" confidence="0" probability="0.24962"></ScoreDistribution><ScoreDistribution value="green" recordCount="1" confidence="0.20654" probability="0.63282"></ScoreDistribution><ScoreDistribution value="red" recordCount="0" confidence="0" probability="0.11756"></ScoreDistribution></Node><Node score="orange" recordCount="9"><SimplePredicate operator="lessOrEqual" field="order-volume" value="3166"></SimplePredicate><ScoreDistribution value="orange" recordCount="7" confidence="0.45258" probability="0.74992"></ScoreDistribution><ScoreDistribution value="green" recordCount="2" confidence="0.06322" probability="0.22656"></ScoreDistribution><ScoreDistribution value="red" recordCount="0" confidence="0" probability="0.02351"></ScoreDistribution><Node score="orange" recordCount="6"><SimplePredicate operator="greaterThan" field="order-volume" value="3012"></SimplePredicate><ScoreDistribution value="orange" recordCount="4" confidence="0.29999" probability="0.64275"></ScoreDistribution><ScoreDistribution value="green" recordCount="2" confidence="0.09677" probability="0.32366"></ScoreDistribution><ScoreDistribution value="red" recordCount="0" confidence="0" probability="0.03359"></ScoreDistribution><Node score="orange" recordCount="5"><SimplePredicate operator="greaterThan" field="order-volume" value="3088"></SimplePredicate><ScoreDistribution value="orange" recordCount="4" confidence="0.37553" probability="0.74987"></ScoreDistribution><ScoreDistribution value="green" recordCount="1" confidence="0.03622" probability="0.21094"></ScoreDistribution><ScoreDistribution value="red" recordCount="0" confidence="0" probability="0.03919"></ScoreDistribution></Node><Node score="green" recordCount="1"><SimplePredicate operator="lessOrEqual" field="order-volume" value="3088"></SimplePredicate><ScoreDistribution value="orange" recordCount="0" confidence="0" probability="0.24962"></ScoreDistribution><ScoreDistribution value="green" recordCount="1" confidence="0.20654" probability="0.63282"></ScoreDistribution><ScoreDistribution value="red" recordCount="0" confidence="0" probability="0.11756"></ScoreDistribution></Node></Node><Node score="orange" recordCount="3"><SimplePredicate operator="lessOrEqual" field="order-volume" value="3012"></SimplePredicate><ScoreDistribution value="orange" recordCount="3" confidence="0.43849" probability="0.87481"></ScoreDistribution><ScoreDistribution value="green" recordCount="0" confidence="0" probability="0.06641"></ScoreDistribution><ScoreDistribution value="red" recordCount="0" confidence="0" probability="0.05878"></ScoreDistribution></Node></Node></Node><Node score="green" recordCount="1"><SimplePredicate operator="lessOrEqual" field="order-volume" value="2823"></SimplePredicate><ScoreDistribution value="orange" recordCount="0" confidence="0" probability="0.24962"></ScoreDistribution><ScoreDistribution value="green" recordCount="1" confidence="0.20654" probability="0.63282"></ScoreDistribution><ScoreDistribution value="red" recordCount="0" confidence="0" probability="0.11756"></ScoreDistribution></Node></Node></Node></Node></Node><Node score="red" recordCount="95"><SimplePredicate operator="notEqual" field="payment-method" value="invoice"></SimplePredicate><ScoreDistribution value="orange" recordCount="3" confidence="0.0108" probability="0.03645"></ScoreDistribution><ScoreDistribution value="green" recordCount="23" confidence="0.16709" probability="0.24235"></ScoreDistribution><ScoreDistribution value="red" recordCount="69" confidence="0.62918" probability="0.7212"></ScoreDistribution><Node score="red" recordCount="85"><SimplePredicate operator="equal" field="payment-method" value="cash"></SimplePredicate><ScoreDistribution value="orange" recordCount="3" confidence="0.01207" probability="0.04069"></ScoreDistribution><ScoreDistribution value="green" recordCount="13" confidence="0.09161" probability="0.15425"></ScoreDistribution><ScoreDistribution value="red" recordCount="69" confidence="0.71589" probability="0.80506"></ScoreDistribution><Node score="red" recordCount="81"><SimplePredicate operator="greaterThan" field="order-volume" value="3009"></SimplePredicate><ScoreDistribution value="orange" recordCount="0" confidence="0" probability="0.00609"></ScoreDistribution><ScoreDistribution value="green" recordCount="12" confidence="0.08683" probability="0.14958"></ScoreDistribution><ScoreDistribution value="red" recordCount="69" confidence="0.75867" probability="0.84433"></ScoreDistribution><Node score="red" recordCount="14"><SimplePredicate operator="equal" field="legal-entity" value="private"></SimplePredicate><ScoreDistribution value="orange" recordCount="0" confidence="0" probability="0.03328"></ScoreDistribution><ScoreDistribution value="green" recordCount="5" confidence="0.16344" probability="0.35104"></ScoreDistribution><ScoreDistribution value="red" recordCount="9" confidence="0.38764" probability="0.61567"></ScoreDistribution><Node score="green" recordCount="6"><SimplePredicate operator="greaterThan" field="order-volume" value="3990"></SimplePredicate><ScoreDistribution value="orange" recordCount="0" confidence="0" probability="0.07132"></ScoreDistribution><ScoreDistribution value="green" recordCount="4" confidence="0.29999" probability="0.60938"></ScoreDistribution><ScoreDistribution value="red" recordCount="2" confidence="0.09677" probability="0.3193"></ScoreDistribution><Node score="red" recordCount="1"><SimplePredicate operator="greaterThan" field="order-volume" value="4787"></SimplePredicate><ScoreDistribution value="orange" recordCount="0" confidence="0" probability="0.24962"></ScoreDistribution><ScoreDistribution value="green" recordCount="0" confidence="0" probability="0.13282"></ScoreDistribution><ScoreDistribution value="red" recordCount="1" confidence="0.20654" probability="0.61756"></ScoreDistribution></Node><Node score="green" recordCount="5"><SimplePredicate operator="lessOrEqual" field="order-volume" value="4787"></SimplePredicate><ScoreDistribution value="orange" recordCount="0" confidence="0" probability="0.08321"></ScoreDistribution><ScoreDistribution value="green" recordCount="4" confidence="0.37553" probability="0.71094"></ScoreDistribution><ScoreDistribution value="red" recordCount="1" confidence="0.03622" probability="0.20585"></ScoreDistribution></Node></Node><Node score="red" recordCount="8"><SimplePredicate operator="lessOrEqual" field="order-volume" value="3990"></SimplePredicate><ScoreDistribution value="orange" recordCount="0" confidence="0" probability="0.05547"></ScoreDistribution><ScoreDistribution value="green" recordCount="1" confidence="0.02242" probability="0.14063"></ScoreDistribution><ScoreDistribution value="red" recordCount="7" confidence="0.52911" probability="0.8039"></ScoreDistribution><Node score="red" recordCount="4"><SimplePredicate operator="greaterThan" field="order-volume" value="3357"></SimplePredicate><ScoreDistribution value="orange" recordCount="0" confidence="0" probability="0.09985"></ScoreDistribution><ScoreDistribution value="green" recordCount="0" confidence="0" probability="0.05313"></ScoreDistribution><ScoreDistribution value="red" recordCount="4" confidence="0.5101" probability="0.84702"></ScoreDistribution></Node><Node score="red" recordCount="4"><SimplePredicate operator="lessOrEqual" field="order-volume" value="3357"></SimplePredicate><ScoreDistribution value="orange" recordCount="0" confidence="0" probability="0.09985"></ScoreDistribution><ScoreDistribution value="green" recordCount="1" confidence="0.04559" probability="0.25313"></ScoreDistribution><ScoreDistribution value="red" recordCount="3" confidence="0.30064" probability="0.64702"></ScoreDistribution><Node score="green" recordCount="1"><SimplePredicate operator="greaterThan" field="order-volume" value="3207"></SimplePredicate><ScoreDistribution value="orange" recordCount="0" confidence="0" probability="0.24962"></ScoreDistribution><ScoreDistribution value="green" recordCount="1" confidence="0.20654" probability="0.63282"></ScoreDistribution><ScoreDistribution value="red" recordCount="0" confidence="0" probability="0.11756"></ScoreDistribution></Node><Node score="red" recordCount="3"><SimplePredicate operator="lessOrEqual" field="order-volume" value="3207"></SimplePredicate><ScoreDistribution value="orange" recordCount="0" confidence="0" probability="0.12481"></ScoreDistribution><ScoreDistribution value="green" recordCount="0" confidence="0" probability="0.06641"></ScoreDistribution><ScoreDistribution value="red" recordCount="3" confidence="0.43849" probability="0.80878"></ScoreDistribution></Node></Node></Node></Node><Node score="red" recordCount="67"><SimplePredicate operator="equal" field="legal-entity" value="juristical"></SimplePredicate><ScoreDistribution value="orange" recordCount="0" confidence="0" probability="0.00734"></ScoreDistribution><ScoreDistribution value="green" recordCount="7" confidence="0.05154" probability="0.10685"></ScoreDistribution><ScoreDistribution value="red" recordCount="60" confidence="0.79969" probability="0.88581"></ScoreDistribution><Node score="red" recordCount="66"><SimplePredicate operator="greaterThan" field="order-volume" value="3171"></SimplePredicate><ScoreDistribution value="orange" recordCount="0" confidence="0" probability="0.00745"></ScoreDistribution><ScoreDistribution value="green" recordCount="6" confidence="0.04233" probability="0.09352"></ScoreDistribution><ScoreDistribution value="red" recordCount="60" confidence="0.81551" probability="0.89903"></ScoreDistribution><Node score="red" recordCount="16"><SimplePredicate operator="greaterThan" field="order-volume" value="4374"></SimplePredicate><ScoreDistribution value="orange" recordCount="0" confidence="0" probability="0.02937"></ScoreDistribution><ScoreDistribution value="green" recordCount="0" confidence="0" probability="0.01563"></ScoreDistribution><ScoreDistribution value="red" recordCount="16" confidence="0.80639" probability="0.95501"></ScoreDistribution></Node><Node score="red" recordCount="50"><SimplePredicate operator="lessOrEqual" field="order-volume" value="4374"></SimplePredicate><ScoreDistribution value="orange" recordCount="0" confidence="0" probability="0.00979"></ScoreDistribution><ScoreDistribution value="green" recordCount="6" confidence="0.05618" probability="0.12286"></ScoreDistribution><ScoreDistribution value="red" recordCount="44" confidence="0.76195" probability="0.86736"></ScoreDistribution><Node score="green" recordCount="3"><SimplePredicate operator="greaterThan" field="order-volume" value="4259"></SimplePredicate><ScoreDistribution value="orange" recordCount="0" confidence="0" probability="0.12481"></ScoreDistribution><ScoreDistribution value="green" recordCount="2" confidence="0.20765" probability="0.56641"></ScoreDistribution><ScoreDistribution value="red" recordCount="1" confidence="0.06149" probability="0.30878"></ScoreDistribution></Node><Node score="red" recordCount="47"><SimplePredicate operator="lessOrEqual" field="order-volume" value="4259"></SimplePredicate><ScoreDistribution value="orange" recordCount="0" confidence="0" probability="0.0104"></ScoreDistribution><ScoreDistribution value="green" recordCount="4" confidence="0.03359" probability="0.08887"></ScoreDistribution><ScoreDistribution value="red" recordCount="43" confidence="0.80068" probability="0.90073"></ScoreDistribution><Node score="red" recordCount="18"><SimplePredicate operator="greaterThan" field="order-volume" value="3945"></SimplePredicate><ScoreDistribution value="orange" recordCount="0" confidence="0" probability="0.02628"></ScoreDistribution><ScoreDistribution value="green" recordCount="0" confidence="0" probability="0.01398"></ScoreDistribution><ScoreDistribution value="red" recordCount="18" confidence="0.82412" probability="0.95974"></ScoreDistribution></Node><Node score="red" recordCount="29"><SimplePredicate operator="lessOrEqual" field="order-volume" value="3945"></SimplePredicate><ScoreDistribution value="orange" recordCount="0" confidence="0" probability="0.01664"></ScoreDistribution><ScoreDistribution value="green" recordCount="4" confidence="0.05497" probability="0.14219"></ScoreDistribution><ScoreDistribution value="red" recordCount="25" confidence="0.69441" probability="0.84117"></ScoreDistribution><Node score="green" recordCount="6"><SimplePredicate operator="greaterThan" field="order-volume" value="3799"></SimplePredicate><ScoreDistribution value="orange" recordCount="0" confidence="0" probability="0.07132"></ScoreDistribution><ScoreDistribution value="green" recordCount="3" confidence="0.18761" probability="0.46652"></ScoreDistribution><ScoreDistribution value="red" recordCount="3" confidence="0.18761" probability="0.46216"></ScoreDistribution><Node score="red" recordCount="5"><SimplePredicate operator="greaterThan" field="order-volume" value="3816"></SimplePredicate><ScoreDistribution value="orange" recordCount="0" confidence="0" probability="0.08321"></ScoreDistribution><ScoreDistribution value="green" recordCount="2" confidence="0.11762" probability="0.37761"></ScoreDistribution><ScoreDistribution value="red" recordCount="3" confidence="0.23072" probability="0.53919"></ScoreDistribution><Node score="green" recordCount="1"><SimplePredicate operator="greaterThan" field="order-volume" value="3918"></SimplePredicate><ScoreDistribution value="orange" recordCount="0" confidence="0" probability="0.24962"></ScoreDistribution><ScoreDistribution value="green" recordCount="1" confidence="0.20654" probability="0.63282"></ScoreDistribution><ScoreDistribution value="red" recordCount="0" confidence="0" probability="0.11756"></ScoreDistribution></Node><Node score="red" recordCount="4"><SimplePredicate operator="lessOrEqual" field="order-volume" value="3918"></SimplePredicate><ScoreDistribution value="orange" recordCount="0" confidence="0" probability="0.09985"></ScoreDistribution><ScoreDistribution value="green" recordCount="1" confidence="0.04559" probability="0.25313"></ScoreDistribution><ScoreDistribution value="red" recordCount="3" confidence="0.30064" probability="0.64702"></ScoreDistribution></Node></Node><Node score="green" recordCount="1"><SimplePredicate operator="lessOrEqual" field="order-volume" value="3816"></SimplePredicate><ScoreDistribution value="orange" recordCount="0" confidence="0" probability="0.24962"></ScoreDistribution><ScoreDistribution value="green" recordCount="1" confidence="0.20654" probability="0.63282"></ScoreDistribution><ScoreDistribution value="red" recordCount="0" confidence="0" probability="0.11756"></ScoreDistribution></Node></Node><Node score="red" recordCount="23"><SimplePredicate operator="lessOrEqual" field="order-volume" value="3799"></SimplePredicate><ScoreDistribution value="orange" recordCount="0" confidence="0" probability="0.0208"></ScoreDistribution><ScoreDistribution value="green" recordCount="1" confidence="0.00772" probability="0.05274"></ScoreDistribution><ScoreDistribution value="red" recordCount="22" confidence="0.79008" probability="0.92646"></ScoreDistribution><Node score="red" recordCount="9"><SimplePredicate operator="greaterThan" field="order-volume" value="3433"></SimplePredicate><ScoreDistribution value="orange" recordCount="0" confidence="0" probability="0.04992"></ScoreDistribution><ScoreDistribution value="green" recordCount="1" confidence="0.01989" probability="0.12656"></ScoreDistribution><ScoreDistribution value="red" recordCount="8" confidence="0.56499" probability="0.82351"></ScoreDistribution><Node score="red" recordCount="8"><SimplePredicate operator="greaterThan" field="order-volume" value="3459"></SimplePredicate><ScoreDistribution value="orange" recordCount="0" confidence="0" probability="0.05547"></ScoreDistribution><ScoreDistribution value="green" recordCount="0" confidence="0" probability="0.02952"></ScoreDistribution><ScoreDistribution value="red" recordCount="8" confidence="0.67558" probability="0.91501"></ScoreDistribution></Node><Node score="green" recordCount="1"><SimplePredicate operator="lessOrEqual" field="order-volume" value="3459"></SimplePredicate><ScoreDistribution value="orange" recordCount="0" confidence="0" probability="0.24962"></ScoreDistribution><ScoreDistribution value="green" recordCount="1" confidence="0.20654" probability="0.63282"></ScoreDistribution><ScoreDistribution value="red" recordCount="0" confidence="0" probability="0.11756"></ScoreDistribution></Node></Node><Node score="red" recordCount="14"><SimplePredicate operator="lessOrEqual" field="order-volume" value="3433"></SimplePredicate><ScoreDistribution value="orange" recordCount="0" confidence="0" probability="0.03328"></ScoreDistribution><ScoreDistribution value="green" recordCount="0" confidence="0" probability="0.01771"></ScoreDistribution><ScoreDistribution value="red" recordCount="14" confidence="0.78468" probability="0.94901"></ScoreDistribution></Node></Node></Node></Node></Node></Node><Node score="green" recordCount="1"><SimplePredicate operator="lessOrEqual" field="order-volume" value="3171"></SimplePredicate><ScoreDistribution value="orange" recordCount="0" confidence="0" probability="0.24962"></ScoreDistribution><ScoreDistribution value="green" recordCount="1" confidence="0.20654" probability="0.63282"></ScoreDistribution><ScoreDistribution value="red" recordCount="0" confidence="0" probability="0.11756"></ScoreDistribution></Node></Node></Node><Node score="orange" recordCount="4"><SimplePredicate operator="lessOrEqual" field="order-volume" value="3009"></SimplePredicate><ScoreDistribution value="orange" recordCount="3" confidence="0.30064" probability="0.69985"></ScoreDistribution><ScoreDistribution value="green" recordCount="1" confidence="0.04559" probability="0.25313"></ScoreDistribution><ScoreDistribution value="red" recordCount="0" confidence="0" probability="0.04702"></ScoreDistribution><Node score="green" recordCount="1"><SimplePredicate operator="greaterThan" field="order-volume" value="2923"></SimplePredicate><ScoreDistribution value="orange" recordCount="0" confidence="0" probability="0.24962"></ScoreDistribution><ScoreDistribution value="green" recordCount="1" confidence="0.20654" probability="0.63282"></ScoreDistribution><ScoreDistribution value="red" recordCount="0" confidence="0" probability="0.11756"></ScoreDistribution></Node><Node score="orange" recordCount="3"><SimplePredicate operator="lessOrEqual" field="order-volume" value="2923"></SimplePredicate><ScoreDistribution value="orange" recordCount="3" confidence="0.43849" probability="0.87481"></ScoreDistribution><ScoreDistribution value="green" recordCount="0" confidence="0" probability="0.06641"></ScoreDistribution><ScoreDistribution value="red" recordCount="0" confidence="0" probability="0.05878"></ScoreDistribution></Node></Node></Node><Node score="green" recordCount="10"><SimplePredicate operator="notEqual" field="payment-method" value="cash"></SimplePredicate><ScoreDistribution value="orange" recordCount="0" confidence="0" probability="0.04539"></ScoreDistribution><ScoreDistribution value="green" recordCount="10" confidence="0.72246" probability="0.93324"></ScoreDistribution><ScoreDistribution value="red" recordCount="0" confidence="0" probability="0.02137"></ScoreDistribution></Node></Node></Node><Node score="orange" recordCount="263"><SimplePredicate operator="lessOrEqual" field="order-volume" value="2791"></SimplePredicate><ScoreDistribution value="orange" recordCount="157" confidence="0.53669" probability="0.59659"></ScoreDistribution><ScoreDistribution value="green" recordCount="67" confidence="0.20588" probability="0.25479"></ScoreDistribution><ScoreDistribution value="red" recordCount="39" confidence="0.11041" probability="0.14862"></ScoreDistribution><Node score="orange" recordCount="157"><SimplePredicate operator="equal" field="payment-method" value="invoice"></SimplePredicate><ScoreDistribution value="orange" recordCount="98" confidence="0.54633" probability="0.62341"></ScoreDistribution><ScoreDistribution value="green" recordCount="20" confidence="0.084" probability="0.12826"></ScoreDistribution><ScoreDistribution value="red" recordCount="39" confidence="0.18737" probability="0.24832"></ScoreDistribution><Node score="red" recordCount="90"><SimplePredicate operator="greaterThan" field="order-volume" value="317"></SimplePredicate><ScoreDistribution value="orange" recordCount="32" confidence="0.26444" probability="0.35713"></ScoreDistribution><ScoreDistribution value="green" recordCount="19" confidence="0.13952" probability="0.21171"></ScoreDistribution><ScoreDistribution value="red" recordCount="39" confidence="0.33576" probability="0.43116"></ScoreDistribution><Node score="red" recordCount="51"><SimplePredicate operator="equal" field="legal-entity" value="private"></SimplePredicate><ScoreDistribution value="orange" recordCount="0" confidence="0" probability="0.0096"></ScoreDistribution><ScoreDistribution value="green" recordCount="12" confidence="0.14005" probability="0.23588"></ScoreDistribution><ScoreDistribution value="red" recordCount="39" confidence="0.63238" probability="0.75452"></ScoreDistribution><Node score="green" recordCount="1"><SimplePredicate operator="greaterThan" field="order-volume" value="2726"></SimplePredicate><ScoreDistribution value="orange" recordCount="0" confidence="0" probability="0.24962"></ScoreDistribution><ScoreDistribution value="green" recordCount="1" confidence="0.20654" probability="0.63282"></ScoreDistribution><ScoreDistribution value="red" recordCount="0" confidence="0" probability="0.11756"></ScoreDistribution></Node><Node score="red" recordCount="50"><SimplePredicate operator="lessOrEqual" field="order-volume" value="2726"></SimplePredicate><ScoreDistribution value="orange" recordCount="0" confidence="0" probability="0.00979"></ScoreDistribution><ScoreDistribution value="green" recordCount="11" confidence="0.12754" probability="0.2209"></ScoreDistribution><ScoreDistribution value="red" recordCount="39" confidence="0.64758" probability="0.76932"></ScoreDistribution><Node score="red" recordCount="39"><SimplePredicate operator="greaterThan" field="order-volume" value="905"></SimplePredicate><ScoreDistribution value="orange" recordCount="0" confidence="0" probability="0.01248"></ScoreDistribution><ScoreDistribution value="green" recordCount="7" confidence="0.08977" probability="0.18164"></ScoreDistribution><ScoreDistribution value="red" recordCount="32" confidence="0.67332" probability="0.80588"></ScoreDistribution><Node score="red" recordCount="34"><SimplePredicate operator="greaterThan" field="order-volume" value="1103"></SimplePredicate><ScoreDistribution value="orange" recordCount="0" confidence="0" probability="0.01426"></ScoreDistribution><ScoreDistribution value="green" recordCount="7" confidence="0.10349" probability="0.20759"></ScoreDistribution><ScoreDistribution value="red" recordCount="27" confidence="0.63201" probability="0.77815"></ScoreDistribution><Node score="red" recordCount="33"><SimplePredicate operator="greaterThan" field="order-volume" value="1126"></SimplePredicate><ScoreDistribution value="orange" recordCount="0" confidence="0" probability="0.01468"></ScoreDistribution><ScoreDistribution value="green" recordCount="6" confidence="0.08611" probability="0.18428"></ScoreDistribution><ScoreDistribution value="red" recordCount="27" confidence="0.65611" probability="0.80103"></ScoreDistribution><Node score="red" recordCount="20"><SimplePredicate operator="greaterThan" field="order-volume" value="1863"></SimplePredicate><ScoreDistribution value="orange" recordCount="0" confidence="0" probability="0.02377"></ScoreDistribution><ScoreDistribution value="green" recordCount="5" confidence="0.11186" probability="0.25075"></ScoreDistribution><ScoreDistribution value="red" recordCount="15" confidence="0.53129" probability="0.72548"></ScoreDistribution><Node score="red" recordCount="18"><SimplePredicate operator="greaterThan" field="order-volume" value="1963"></SimplePredicate><ScoreDistribution value="orange" recordCount="0" confidence="0" probability="0.02628"></ScoreDistribution><ScoreDistribution value="green" recordCount="3" confidence="0.05836" probability="0.17188"></ScoreDistribution><ScoreDistribution value="red" recordCount="15" confidence="0.60778" probability="0.80185"></ScoreDistribution><Node score="red" recordCount="5"><SimplePredicate operator="greaterThan" field="order-volume" value="2446"></SimplePredicate><ScoreDistribution value="orange" recordCount="0" confidence="0" probability="0.08321"></ScoreDistribution><ScoreDistribution value="green" recordCount="2" confidence="0.11762" probability="0.37761"></ScoreDistribution><ScoreDistribution value="red" recordCount="3" confidence="0.23072" probability="0.53919"></ScoreDistribution><Node score="red" recordCount="2"><SimplePredicate operator="greaterThan" field="order-volume" value="2533"></SimplePredicate><ScoreDistribution value="orange" recordCount="0" confidence="0" probability="0.16641"></ScoreDistribution><ScoreDistribution value="green" recordCount="0" confidence="0" probability="0.08855"></ScoreDistribution><ScoreDistribution value="red" recordCount="2" confidence="0.34237" probability="0.74504"></ScoreDistribution></Node><Node score="green" recordCount="3"><SimplePredicate operator="lessOrEqual" field="order-volume" value="2533"></SimplePredicate><ScoreDistribution value="orange" recordCount="0" confidence="0" probability="0.12481"></ScoreDistribution><ScoreDistribution value="green" recordCount="2" confidence="0.20765" probability="0.56641"></ScoreDistribution><ScoreDistribution value="red" recordCount="1" confidence="0.06149" probability="0.30878"></ScoreDistribution></Node></Node><Node score="red" recordCount="13"><SimplePredicate operator="lessOrEqual" field="order-volume" value="2446"></SimplePredicate><ScoreDistribution value="orange" recordCount="0" confidence="0" probability="0.03566"></ScoreDistribution><ScoreDistribution value="green" recordCount="1" confidence="0.01371" probability="0.0904"></ScoreDistribution><ScoreDistribution value="red" recordCount="12" confidence="0.66685" probability="0.87394"></ScoreDistribution><Node score="red" recordCount="11"><SimplePredicate operator="greaterThan" field="order-volume" value="2060"></SimplePredicate><ScoreDistribution value="orange" recordCount="0" confidence="0" probability="0.0416"></ScoreDistribution><ScoreDistribution value="green" recordCount="0" confidence="0" probability="0.02214"></ScoreDistribution><ScoreDistribution value="red" recordCount="11" confidence="0.74116" probability="0.93626"></ScoreDistribution></Node><Node score="green" recordCount="2"><SimplePredicate operator="lessOrEqual" field="order-volume" value="2060"></SimplePredicate><ScoreDistribution value="orange" recordCount="0" confidence="0" probability="0.16641"></ScoreDistribution><ScoreDistribution value="green" recordCount="1" confidence="0.09453" probability="0.42188"></ScoreDistribution><ScoreDistribution value="red" recordCount="1" confidence="0.09453" probability="0.4117"></ScoreDistribution><Node score="green" recordCount="1"><SimplePredicate operator="greaterThan" field="order-volume" value="2004"></SimplePredicate><ScoreDistribution value="orange" recordCount="0" confidence="0" probability="0.24962"></ScoreDistribution><ScoreDistribution value="green" recordCount="1" confidence="0.20654" probability="0.63282"></ScoreDistribution><ScoreDistribution value="red" recordCount="0" confidence="0" probability="0.11756"></ScoreDistribution></Node><Node score="red" recordCount="1"><SimplePredicate operator="lessOrEqual" field="order-volume" value="2004"></SimplePredicate><ScoreDistribution value="orange" recordCount="0" confidence="0" probability="0.24962"></ScoreDistribution><ScoreDistribution value="green" recordCount="0" confidence="0" probability="0.13282"></ScoreDistribution><ScoreDistribution value="red" recordCount="1" confidence="0.20654" probability="0.61756"></ScoreDistribution></Node></Node></Node></Node><Node score="green" recordCount="2"><SimplePredicate operator="lessOrEqual" field="order-volume" value="1963"></SimplePredicate><ScoreDistribution value="orange" recordCount="0" confidence="0" probability="0.16641"></ScoreDistribution><ScoreDistribution value="green" recordCount="2" confidence="0.34237" probability="0.75522"></ScoreDistribution><ScoreDistribution value="red" recordCount="0" confidence="0" probability="0.07837"></ScoreDistribution></Node></Node><Node score="red" recordCount="13"><SimplePredicate operator="lessOrEqual" field="order-volume" value="1863"></SimplePredicate><ScoreDistribution value="orange" recordCount="0" confidence="0" probability="0.03566"></ScoreDistribution><ScoreDistribution value="green" recordCount="1" confidence="0.01371" probability="0.0904"></ScoreDistribution><ScoreDistribution value="red" recordCount="12" confidence="0.66685" probability="0.87394"></ScoreDistribution><Node score="red" recordCount="8"><SimplePredicate operator="greaterThan" field="order-volume" value="1434"></SimplePredicate><ScoreDistribution value="orange" recordCount="0" confidence="0" probability="0.05547"></ScoreDistribution><ScoreDistribution value="green" recordCount="0" confidence="0" probability="0.02952"></ScoreDistribution><ScoreDistribution value="red" recordCount="8" confidence="0.67558" probability="0.91501"></ScoreDistribution></Node><Node score="red" recordCount="5"><SimplePredicate operator="lessOrEqual" field="order-volume" value="1434"></SimplePredicate><ScoreDistribution value="orange" recordCount="0" confidence="0" probability="0.08321"></ScoreDistribution><ScoreDistribution value="green" recordCount="1" confidence="0.03622" probability="0.21094"></ScoreDistribution><ScoreDistribution value="red" recordCount="4" confidence="0.37553" probability="0.70585"></ScoreDistribution><Node score="green" recordCount="1"><SimplePredicate operator="greaterThan" field="order-volume" value="1365"></SimplePredicate><ScoreDistribution value="orange" recordCount="0" confidence="0" probability="0.24962"></ScoreDistribution><ScoreDistribution value="green" recordCount="1" confidence="0.20654" probability="0.63282"></ScoreDistribution><ScoreDistribution value="red" recordCount="0" confidence="0" probability="0.11756"></ScoreDistribution></Node><Node score="red" recordCount="4"><SimplePredicate operator="lessOrEqual" field="order-volume" value="1365"></SimplePredicate><ScoreDistribution value="orange" recordCount="0" confidence="0" probability="0.09985"></ScoreDistribution><ScoreDistribution value="green" recordCount="0" confidence="0" probability="0.05313"></ScoreDistribution><ScoreDistribution value="red" recordCount="4" confidence="0.5101" probability="0.84702"></ScoreDistribution></Node></Node></Node></Node><Node score="green" recordCount="1"><SimplePredicate operator="lessOrEqual" field="order-volume" value="1126"></SimplePredicate><ScoreDistribution value="orange" recordCount="0" confidence="0" probability="0.24962"></ScoreDistribution><ScoreDistribution value="green" recordCount="1" confidence="0.20654" probability="0.63282"></ScoreDistribution><ScoreDistribution value="red" recordCount="0" confidence="0" probability="0.11756"></ScoreDistribution></Node></Node><Node score="red" recordCount="5"><SimplePredicate operator="lessOrEqual" field="order-volume" value="1103"></SimplePredicate><ScoreDistribution value="orange" recordCount="0" confidence="0" probability="0.08321"></ScoreDistribution><ScoreDistribution value="green" recordCount="0" confidence="0" probability="0.04427"></ScoreDistribution><ScoreDistribution value="red" recordCount="5" confidence="0.56551" probability="0.87252"></ScoreDistribution></Node></Node><Node score="red" recordCount="11"><SimplePredicate operator="lessOrEqual" field="order-volume" value="905"></SimplePredicate><ScoreDistribution value="orange" recordCount="0" confidence="0" probability="0.0416"></ScoreDistribution><ScoreDistribution value="green" recordCount="4" confidence="0.15166" probability="0.35547"></ScoreDistribution><ScoreDistribution value="red" recordCount="7" confidence="0.3538" probability="0.60293"></ScoreDistribution><Node score="green" recordCount="2"><SimplePredicate operator="greaterThan" field="order-volume" value="770"></SimplePredicate><ScoreDistribution value="orange" recordCount="0" confidence="0" probability="0.16641"></ScoreDistribution><ScoreDistribution value="green" recordCount="2" confidence="0.34237" probability="0.75522"></ScoreDistribution><ScoreDistribution value="red" recordCount="0" confidence="0" probability="0.07837"></ScoreDistribution></Node><Node score="red" recordCount="9"><SimplePredicate operator="lessOrEqual" field="order-volume" value="770"></SimplePredicate><ScoreDistribution value="orange" recordCount="0" confidence="0" probability="0.04992"></ScoreDistribution><ScoreDistribution value="green" recordCount="2" confidence="0.06322" probability="0.22656"></ScoreDistribution><ScoreDistribution value="red" recordCount="7" confidence="0.45258" probability="0.72351"></ScoreDistribution><Node score="red" recordCount="5"><SimplePredicate operator="greaterThan" field="order-volume" value="490"></SimplePredicate><ScoreDistribution value="orange" recordCount="0" confidence="0" probability="0.08321"></ScoreDistribution><ScoreDistribution value="green" recordCount="2" confidence="0.11762" probability="0.37761"></ScoreDistribution><ScoreDistribution value="red" recordCount="3" confidence="0.23072" probability="0.53919"></ScoreDistribution><Node score="red" recordCount="3"><SimplePredicate operator="greaterThan" field="order-volume" value="592"></SimplePredicate><ScoreDistribution value="orange" recordCount="0" confidence="0" probability="0.12481"></ScoreDistribution><ScoreDistribution value="green" recordCount="0" confidence="0" probability="0.06641"></ScoreDistribution><ScoreDistribution value="red" recordCount="3" confidence="0.43849" probability="0.80878"></ScoreDistribution></Node><Node score="green" recordCount="2"><SimplePredicate operator="lessOrEqual" field="order-volume" value="592"></SimplePredicate><ScoreDistribution value="orange" recordCount="0" confidence="0" probability="0.16641"></ScoreDistribution><ScoreDistribution value="green" recordCount="2" confidence="0.34237" probability="0.75522"></ScoreDistribution><ScoreDistribution value="red" recordCount="0" confidence="0" probability="0.07837"></ScoreDistribution></Node></Node><Node score="red" recordCount="4"><SimplePredicate operator="lessOrEqual" field="order-volume" value="490"></SimplePredicate><ScoreDistribution value="orange" recordCount="0" confidence="0" probability="0.09985"></ScoreDistribution><ScoreDistribution value="green" recordCount="0" confidence="0" probability="0.05313"></ScoreDistribution><ScoreDistribution value="red" recordCount="4" confidence="0.5101" probability="0.84702"></ScoreDistribution></Node></Node></Node></Node></Node><Node score="orange" recordCount="39"><SimplePredicate operator="equal" field="legal-entity" value="juristical"></SimplePredicate><ScoreDistribution value="orange" recordCount="32" confidence="0.67332" probability="0.81248"></ScoreDistribution><ScoreDistribution value="green" recordCount="7" confidence="0.08977" probability="0.18164"></ScoreDistribution><ScoreDistribution value="red" recordCount="0" confidence="0" probability="0.00588"></ScoreDistribution><Node score="orange" recordCount="35"><SimplePredicate operator="greaterThan" field="order-volume" value="1083"></SimplePredicate><ScoreDistribution value="orange" recordCount="32" confidence="0.7762" probability="0.90276"></ScoreDistribution><ScoreDistribution value="green" recordCount="3" confidence="0.02958" probability="0.09071"></ScoreDistribution><ScoreDistribution value="red" recordCount="0" confidence="0" probability="0.00653"></ScoreDistribution><Node score="orange" recordCount="20"><SimplePredicate operator="greaterThan" field="order-volume" value="1909"></SimplePredicate><ScoreDistribution value="orange" recordCount="20" confidence="0.83887" probability="0.97615"></ScoreDistribution><ScoreDistribution value="green" recordCount="0" confidence="0" probability="0.01265"></ScoreDistribution><ScoreDistribution value="red" recordCount="0" confidence="0" probability="0.0112"></ScoreDistribution></Node><Node score="orange" recordCount="15"><SimplePredicate operator="lessOrEqual" field="order-volume" value="1909"></SimplePredicate><ScoreDistribution value="orange" recordCount="12" confidence="0.54814" probability="0.7812"></ScoreDistribution><ScoreDistribution value="green" recordCount="3" confidence="0.07047" probability="0.2041"></ScoreDistribution><ScoreDistribution value="red" recordCount="0" confidence="0" probability="0.01469"></ScoreDistribution><Node score="green" recordCount="3"><SimplePredicate operator="greaterThan" field="order-volume" value="1756"></SimplePredicate><ScoreDistribution value="orange" recordCount="1" confidence="0.06149" probability="0.37481"></ScoreDistribution><ScoreDistribution value="green" recordCount="2" confidence="0.20765" probability="0.56641"></ScoreDistribution><ScoreDistribution value="red" recordCount="0" confidence="0" probability="0.05878"></ScoreDistribution></Node><Node score="orange" recordCount="12"><SimplePredicate operator="lessOrEqual" field="order-volume" value="1756"></SimplePredicate><ScoreDistribution value="orange" recordCount="11" confidence="0.64611" probability="0.88456"></ScoreDistribution><ScoreDistribution value="green" recordCount="1" confidence="0.01486" probability="0.09736"></ScoreDistribution><ScoreDistribution value="red" recordCount="0" confidence="0" probability="0.01809"></ScoreDistribution><Node score="orange" recordCount="10"><SimplePredicate operator="greaterThan" field="order-volume" value="1226"></SimplePredicate><ScoreDistribution value="orange" recordCount="10" confidence="0.72246" probability="0.95448"></ScoreDistribution><ScoreDistribution 